12 26
a 0.0 1.004145679601578 0.0 1.0114893855135916 0.0 0.9871718772032227 1.0044264692161091 0.9907767723438924 0.989171805379534 1.0164796328023056 0.9993180232668257 0.0 0.0 0.0 1.006494384961989 0.0 1.0047435640033755 0.0 0.9909996378535003 0.0 1.0008796782746292 0.9986028026056478 1.0054425950147563 0.9813961152695634 0.0 0.0
b 0.0 0.0 1.9957287727774713 0.0 1.0054425950147563 0.0 0.0 0.0 0.0 0.0 0.0 1.9911151551702413 0.0 2.3852235907364046 0.0 0.4148945847951214 0.0 0.33670821718357463 0.0 0.4121636227096077 0.0 0.0 0.0 0.0 0.3765960789908543 0.4054326210632706
d 0.0 0.0 1.9693382662935197 0.0 1.0047435640033755 0.0 0.0 0.0 0.0 0.0 0.0 2.0187044851013054 0.0 0.0 0.0 1.2536299591359041 0.0 1.2852244035188212 0.0 1.2788151886333434 0.0 0.0 0.0 0.0 1.2576693375454504 1.3023269117041765
e 0.0 0.9792416547692248 0.0 1.0687993616452283 0.0 1.0153262862877168 0.9731366092414958 1.0317718926403456 1.0069586077066714 0.9771539153390925 0.9650136755367212 0.0 0.0 0.0 0.0 0.0 2.0187044851013054 0.0 0.0 0.0 0.9737637316338478 2.003436545652885 1.9911151551702413 0.0 0.0 0.0
g 0.0 0.0 1.9970712216561224 0.0 0.9986028026056478 0.0 0.0 0.0 0.0 0.0 0.0 2.003436545652885 0.0 0.0 0.0 1.259936854631309 0.0 1.336571597512047 0.0 1.2654462813756582 0.0 0.0 0.0 0.0 1.3101995754165716 1.2449721269364704
i 0.0 1.0313484663431904 0.0 0.9567211965223938 0.0 1.0565935804823485 1.0104669426704254 0.973993681575484 0.9714405372031815 1.013439694826748 0.9911933354756893 0.0 0.0 0.0 2.005002158765928 0.0 0.0 0.0 2.0011153158808472 0.0 1.0092636940261237 0.0 0.0 2.0000933947989226 0.0 0.0
k 2.0191286837479057 0.0 0.0 0.0 0.9909996378535003 0.0 0.0 0.0 0.0 0.0 0.0 0.0 2.0011153158808472 0.0 0.0 1.2532060953610693 0.0 1.240383676074834 0.0 1.2861588945453573 0.0 0.0 0.0 0.0 1.3472270444214536 1.22769964188338
o 0.0 1.001073448009581 0.0 0.9562327205655935 0.0 0.9966190895009396 0.9905998234622582 1.0524206420028064 1.0335448115905344 0.9315427807987983 1.020687082227741 0.0 0.0 0.0 0.0 0.0 1.9693382662935197 0.0 0.0 0.0 1.0222151392325225 1.9970712216561224 1.9957287727774713 0.0 0.0 0.0
p 1.983957703486181 0.0 0.0 0.0 1.006494384961989 0.0 0.0 0.0 0.0 0.0 0.0 0.0 2.005002158765928 2.365825018164217 0.0 0.40045656875304503 0.0 0.4178626448768749 0.0 0.3989339861016836 0.0 0.0 0.0 0.0 0.43084656893063733 0.4646646257100302
r 0.9903344427981376 0.0 1.0222151392325225 0.0 1.0008796782746292 0.0 0.0 0.0 0.0 0.0 0.0 0.9737637316338478 1.0092636940261237 0.0 0.0 1.2912883356509532 0.0 1.2747507789714982 0.0 1.2790959782478748 0.0 0.0 0.0 0.0 1.2515642920177215 1.2814453880314118
t 2.0389495619231366 0.0 0.0 0.0 0.9813961152695634 0.0 0.0 0.0 0.0 0.0 0.0 0.0 2.0000933947989226 0.0 0.0 1.3087732238208567 0.0 1.3048380377369808 0.0 1.2739875322985914 0.0 0.0 0.0 0.0 1.2434413583129464 1.2621717808366757
u 0.0 0.9701257222698649 0.0 0.9697018584950303 0.0 0.9798597320203105 1.0077840987849143 0.9764326177652699 1.0305703042515353 1.0103758670535465 1.0252689869548173 0.0 0.0 0.0 1.983957703486181 0.0 0.0 0.0 2.0191286837479057 0.0 0.9903344427981376 0.0 0.0 2.0389495619231366 0.0 0.0
