13 26
a 0.2582882145817761 0.0 1.1252205701200433 1.1322834864175257 0.0 0.0 1.124939780505512 1.1099659062834684 0.24505857797385178 1.1115708732478267 1.1201121241707594 0.0 0.0 0.0 1.1262366959186907 0.0 1.1216737791785634 1.1117937387574341 0.0 0.0 1.1255376649073092 1.127288485865923 1.1193969035095819 1.102190216173497 0.0 0.0
b 0.0 1.1262366959186907 0.0 0.0 2.1119092560741755 0.0 0.0 0.0 0.0 0.0 0.0 2.1165228736814052 0.0 2.5060176916403387 0.0 0.2582882145817761 0.0 0.0 0.21896249711856244 0.2552482766062179 0.0 0.0 0.0 0.0 0.17335136257826841 0.2521844488330164
d 0.0 1.1255376649073092 0.0 0.0 2.139498586005239 0.0 0.0 0.0 0.0 0.0 0.0 2.090132367197454 0.0 0.0 0.0 1.124939780505512 0.0 0.0 1.1000357556731586 1.1521425672471242 0.0 0.0 0.0 0.0 1.121867548913515 1.090919823173799
e 0.21896249711856244 0.0 1.0939307101454296 1.1895934625491622 0.0 0.0 1.1000357556731586 1.1277527086106054 0.2732129870583455 1.1525659935442798 1.0858077764406548 0.0 0.0 0.0 2.1119092560741755 0.0 1.0945578325377816 0.0 0.0 0.0 2.139498586005239 0.0 2.1242306465568186 0.0 0.0 0.0
g 0.0 1.1193969035095819 0.0 0.0 2.1242306465568186 0.0 0.0 0.0 0.0 0.0 0.0 2.1178653225600566 0.0 0.0 0.0 1.1115708732478267 0.0 0.0 1.1525659935442798 1.0947877824794183 0.0 0.0 0.0 0.0 1.1732147429067408 1.097226718669204
i 0.2552482766062179 0.0 1.1312610435743593 1.0775152974263282 0.0 0.0 1.1521425672471242 1.0922346381071157 0.31448028125297794 1.0947877824794183 1.111987436379623 0.0 0.0 0.0 0.0 0.0 1.1300577949300576 2.1219094167847814 0.0 0.0 0.0 2.125796259669862 0.0 2.1208874957028563 0.0 0.0
k 0.0 1.1117937387574341 0.0 0.0 0.0 2.1219094167847814 0.0 0.0 0.0 0.0 0.0 0.0 2.13992278465184 0.0 0.0 1.1322834864175257 0.0 0.0 1.1895934625491622 1.0775152974263282 0.0 0.0 0.0 0.0 1.0770268214695276 1.0904959593989647
o 0.17335136257826841 0.0 1.111393924366192 1.0770268214695276 0.0 0.0 1.121867548913515 1.1543389124944683 0.25450579027156867 1.1732147429067408 1.1414811831316742 0.0 0.0 0.0 2.1165228736814052 0.0 1.1430092401364564 0.0 0.0 0.0 2.090132367197454 0.0 2.1178653225600566 0.0 0.0 0.0
p 0.0 1.127288485865923 0.0 0.0 0.0 2.125796259669862 0.0 0.0 0.0 0.0 0.0 0.0 2.104751804390115 2.486619119068151 0.0 0.24505857797385178 0.0 0.0 0.2732129870583455 0.31448028125297794 0.0 0.0 0.0 0.0 0.25450579027156867 0.23774643279093985
r 0.0 1.1216737791785634 0.0 0.0 1.0945578325377816 1.1300577949300576 0.0 0.0 0.0 0.0 0.0 1.1430092401364564 1.1111285437020717 0.0 0.0 1.1252205701200433 0.0 0.0 1.0939307101454296 1.1312610435743593 0.0 0.0 0.0 0.0 1.111393924366192 1.1285781996888482
t 0.0 1.102190216173497 0.0 0.0 0.0 2.1208874957028563 0.0 0.0 0.0 0.0 0.0 0.0 2.1597436628270703 0.0 0.0 1.1201121241707594 0.0 0.0 1.0858077764406548 1.111987436379623 0.0 0.0 0.0 0.0 1.1414811831316742 1.1460630878587514
u 0.2521844488330164 0.0 1.1285781996888482 1.0904959593989647 0.0 0.0 1.090919823173799 1.1513644051554697 0.23774643279093985 1.097226718669204 1.1460630878587514 0.0 0.0 0.0 0.0 0.0 1.1111285437020717 2.13992278465184 0.0 0.0 0.0 2.104751804390115 0.0 2.1597436628270703 0.0 0.0
# 2.5060176916403387 0.0 0.0 0.0 0.0 0.0 0.0 0.0 2.486619119068151 0.0 0.0 0.0 0.0 0.0 0.0 1.1099659062834684 0.0 0.0 1.1277527086106054 1.0922346381071157 0.0 0.0 0.0 0.0 1.1543389124944683 1.1513644051554697
